{
  "version": 2,
  "featureNames": [
    "slpm_diff",
    "str_acc_diff",
    "sapm_diff",
    "str_def_diff",
    "td_avg_diff",
    "td_acc_diff",
    "td_def_diff",
    "sub_avg_diff",
    "wins_diff",
    "losses_diff",
    "reach_diff",
    "win_rate_diff",
    "total_fights_diff",
    "log_exp_diff",
    "draws_diff",
    "eff_striking_diff",
    "net_striking_diff",
    "damage_ratio_diff",
    "eff_takedown_diff",
    "ground_control_diff",
    "defense_composite_diff",
    "expected_strikes_diff",
    "expected_td_diff",
    "striking_interaction",
    "td_interaction",
    "style_matchup",
    "offensive_output_diff"
  ],
  "logisticRegression": {
    "weights": [
      0.06814319688072282,
      0.005029401975555313,
      -0.11631016283714188,
      0.004130745067601133,
      0.3115055986740644,
      -0.039849184709407515,
      0.06744763224324883,
      -0.00008119523298316542,
      0.05240692375949705,
      -0.11329604277927705,
      0.21817265286850157,
      0.33940398480298645,
      -0.0038473359660035197,
      0.22144470519705448,
      0.004212036666219359,
      0.05352510114634961,
      0.15159079474086562,
      0.03867680961545293,
      -0.04915020369968118,
      -0.031578407632557086,
      0.1275551613064309,
      0.058838012266471305,
      0.3444783753695242,
      -0.07174474020083668,
      -0.012552477240012436,
      0.05289291326889769,
      0.2693427309514327
    ],
    "bias": 0.5346166991571535,
    "means": [
      0.1393791547958212,
      1.096747388414055,
      -0.16142331433998086,
      1.924264007597341,
      0.1201602564102562,
      2.540004748338082,
      3.7631766381766383,
      0.03643162393162401,
      1.9526353276353277,
      0.5366809116809117,
      4.287630579297246,
      0.014876676549043866,
      2.4743589743589745,
      0.10530641534545118,
      -0.014957264957264958,
      0.07429274691358034,
      0.3008024691358033,
      0.08829680427885839,
      0.05568792735042731,
      0.09211955128205107,
      2.7517426400759737,
      0.12224926400759724,
      0.10845735992402646,
      0.06384452754036074,
      0.18320415479582164,
      -0.017826804368471175,
      0.19143666904083573
    ],
    "stds": [
      1.5811149871784835,
      11.7034328638027,
      1.6374587862433023,
      11.006471378584225,
      1.764815648711801,
      27.042755089838387,
      28.712773779854206,
      1.008783194992104,
      11.288972284459032,
      5.789463298091564,
      22.051491775898867,
      0.1375028878983183,
      15.74663797434455,
      0.5428940344733699,
      0.8832698590734875,
      0.8961722542201106,
      1.9671070953825274,
      0.6563070273114281,
      0.966904584065498,
      1.5075321784889726,
      17.464360059041546,
      0.9063214035737576,
      0.9705821731377947,
      0.22909885476569408,
      0.5627516864205354,
      1.8069183619614377,
      2.1407802699689027
    ]
  },
  "gbt": {
    "trees": [
      {
        "f": 22,
        "t": -0.03320000000000012,
        "l": {
          "f": 11,
          "t": -0.01840776633233937,
          "l": {
            "f": 17,
            "t": -0.023538103822087708,
            "l": {
              "f": 11,
              "t": -0.10300904977375569,
              "l": -1.805342600755948,
              "r": -1.1747784990352603
            },
            "r": {
              "f": 22,
              "t": -0.5184000000000002,
              "l": -1.2291485756354827,
              "r": -0.438323557601281
            }
          },
          "r": {
            "f": 17,
            "t": -0.044566230789963024,
            "l": {
              "f": 22,
              "t": -0.41974999999999996,
              "l": -1.1854189396808799,
              "r": -0.46708555544603675
            },
            "r": {
              "f": 26,
              "t": -0.52375,
              "l": -0.30747593877949797,
              "r": 0.397397903244932
            }
          }
        },
        "r": {
          "f": 17,
          "t": 0.1231088647551764,
          "l": {
            "f": 22,
            "t": 0.22319999999999995,
            "l": {
              "f": 11,
              "t": 0.09044734389561981,
              "l": -0.5664366395045562,
              "r": 0.6337985064197404
            },
            "r": {
              "f": 11,
              "t": -0.1234831871345029,
              "l": -0.4952310199371944,
              "r": 0.6081037800517455
            }
          },
          "r": {
            "f": 22,
            "t": 0.56135,
            "l": {
              "f": 11,
              "t": 0.05132575757575758,
              "l": 0.478004991982739,
              "r": 1.0016752693865467
            },
            "r": {
              "f": 16,
              "t": 1.825,
              "l": 1.1200562641398897,
              "r": 1.5061667857161347
            }
          }
        }
      },
      {
        "f": 22,
        "t": -0.1119,
        "l": {
          "f": 11,
          "t": -0.011629479377958052,
          "l": {
            "f": 26,
            "t": -1.5212500000000002,
            "l": {
              "f": 25,
              "t": 1.6912999999999998,
              "l": -1.754192394016191,
              "r": -1.1547872379589872
            },
            "r": {
              "f": 10,
              "t": 64.5,
              "l": -0.9814402058411645,
              "r": 0.6662157743252758
            }
          },
          "r": {
            "f": 21,
            "t": -0.22624999999999984,
            "l": {
              "f": 26,
              "t": 0.5037499999999999,
              "l": -1.331648128204313,
              "r": 0.11492310177511901
            },
            "r": {
              "f": 22,
              "t": -0.7781999999999999,
              "l": -0.78813148088435,
              "r": 0.0842605633422402
            }
          }
        },
        "r": {
          "f": 22,
          "t": 0.7422500000000002,
          "l": {
            "f": 15,
            "t": -0.047149999999999914,
            "l": {
              "f": 11,
              "t": -0.08863825255830865,
              "l": -0.9801030225814072,
              "r": 0.08820495653757228
            },
            "r": {
              "f": 11,
              "t": 0.09704415954415951,
              "l": 0.41807803002720206,
              "r": 0.9496063375017763
            }
          },
          "r": {
            "f": 0,
            "t": -1.745,
            "l": {
              "f": 20,
              "t": 8.425,
              "l": 0.01851684390975168,
              "r": 0.9810355686341417
            },
            "r": {
              "f": 11,
              "t": -0.1919471327459194,
              "l": -0.2606873941664751,
              "r": 1.1984013424505813
            }
          }
        }
      },
      {
        "f": 22,
        "t": -0.10755000000000008,
        "l": {
          "f": 11,
          "t": 0.06398161586840828,
          "l": {
            "f": 17,
            "t": -0.052585438082057956,
            "l": {
              "f": 26,
              "t": -0.6899999999999997,
              "l": -1.421136625323658,
              "r": -0.8916588218978115
            },
            "r": {
              "f": 22,
              "t": -0.4872,
              "l": -0.9896133450844865,
              "r": -0.26927945646251944
            }
          },
          "r": {
            "f": 26,
            "t": -0.6637500000000001,
            "l": {
              "f": 16,
              "t": 0.015000000000000568,
              "l": -1.122225203463985,
              "r": -0.13762332365848626
            },
            "r": {
              "f": 1,
              "t": -2.5,
              "l": -0.21440560038425158,
              "r": 0.6205270388398625
            }
          }
        },
        "r": {
          "f": 17,
          "t": 0.12679054291843944,
          "l": {
            "f": 22,
            "t": 0.4548000000000001,
            "l": {
              "f": 11,
              "t": -0.07216880341880344,
              "l": -0.7431336043108245,
              "r": 0.04518242012062074
            },
            "r": {
              "f": 16,
              "t": -1.2900000000000003,
              "l": -0.017486629519731376,
              "r": 0.761604346325973
            }
          },
          "r": {
            "f": 22,
            "t": 0.7428000000000001,
            "l": {
              "f": 11,
              "t": 0.06082877885635052,
              "l": 0.4320300293267508,
              "r": 0.9422166621564604
            },
            "r": {
              "f": 16,
              "t": 1.94,
              "l": 1.0276909649341854,
              "r": 1.3862432661531714
            }
          }
        }
      },
      {
        "f": 22,
        "t": -0.07280000000000003,
        "l": {
          "f": 11,
          "t": -0.023262347391786842,
          "l": {
            "f": 17,
            "t": -0.02370827364245448,
            "l": {
              "f": 4,
              "t": -2.5549999999999997,
              "l": -1.89303642007434,
              "r": -1.1964285046419116
            },
            "r": {
              "f": 22,
              "t": -0.49395,
              "l": -1.0450134896513674,
              "r": -0.3656266627780596
            }
          },
          "r": {
            "f": 22,
            "t": -0.7816000000000001,
            "l": {
              "f": 10,
              "t": 6.5,
              "l": -1.0434135458691307,
              "r": 0.08342485193786393
            },
            "r": {
              "f": 15,
              "t": 0.17100000000000015,
              "l": -0.5086916750006084,
              "r": 0.24140527327582847
            }
          }
        },
        "r": {
          "f": 17,
          "t": 0.08158805063726865,
          "l": {
            "f": 22,
            "t": 0.3569,
            "l": {
              "f": 11,
              "t": 0.09963235294117645,
              "l": -0.4457294568975878,
              "r": 0.5591073034911995
            },
            "r": {
              "f": 3,
              "t": -17.5,
              "l": -1.0115142555532353,
              "r": 0.5039773143984635
            }
          },
          "r": {
            "f": 22,
            "t": 0.74275,
            "l": {
              "f": 8,
              "t": 1.5,
              "l": 0.304863987237602,
              "r": 0.8416381242692319
            },
            "r": {
              "f": 11,
              "t": -0.04551102826964892,
              "l": 0.668106014503572,
              "r": 1.2739951428696354
            }
          }
        }
      },
      {
        "f": 22,
        "t": -0.10745000000000013,
        "l": {
          "f": 17,
          "t": 0.12024119348421292,
          "l": {
            "f": 11,
            "t": -0.014822134387351749,
            "l": {
              "f": 26,
              "t": -1.3287499999999999,
              "l": -1.4039510702284388,
              "r": -0.8995491958351108
            },
            "r": {
              "f": 16,
              "t": -1.8099999999999996,
              "l": -1.441201781846093,
              "r": -0.42544219647120485
            }
          },
          "r": {
            "f": 11,
            "t": 0.06643375466738177,
            "l": {
              "f": 22,
              "t": -0.4875,
              "l": -0.71249489414778,
              "r": -0.09127606124861179
            },
            "r": {
              "f": 26,
              "t": -0.4374999999999999,
              "l": -0.07323950361237969,
              "r": 0.6219780605707416
            }
          }
        },
        "r": {
          "f": 16,
          "t": -1.335,
          "l": {
            "f": 22,
            "t": 0.30525,
            "l": {
              "f": 11,
              "t": -0.14190476190476187,
              "l": -1.7880786395988983,
              "r": -0.642975739966349
            },
            "r": {
              "f": 11,
              "t": 0.06440422322775263,
              "l": -0.30469041489660964,
              "r": 0.7457241026881934
            }
          },
          "r": {
            "f": 22,
            "t": 0.74315,
            "l": {
              "f": 17,
              "t": 0.3967092634903152,
              "l": 0.15976272062063845,
              "r": 0.8043958376037824
            },
            "r": {
              "f": 11,
              "t": -0.019273618538324377,
              "l": 0.7114757912403983,
              "r": 1.1649968699448152
            }
          }
        }
      },
      {
        "f": 26,
        "t": -0.2412500000000002,
        "l": {
          "f": 20,
          "t": -1.4749999999999979,
          "l": {
            "f": 16,
            "t": -1.87,
            "l": {
              "f": 6,
              "t": -14.5,
              "l": -1.786592457154682,
              "r": -1.0299107276556747
            },
            "r": {
              "f": 11,
              "t": 0.014389233954451353,
              "l": -1.048977983218192,
              "r": -0.5019287300152248
            }
          },
          "r": {
            "f": 11,
            "t": -0.018450435729847503,
            "l": {
              "f": 16,
              "t": 0.5149999999999999,
              "l": -0.8799699921804092,
              "r": -0.19048400619296715
            },
            "r": {
              "f": 16,
              "t": 1.8749999999999998,
              "l": -0.08509662966659137,
              "r": 0.6784101976212332
            }
          }
        },
        "r": {
          "f": 16,
          "t": -1.335,
          "l": {
            "f": 20,
            "t": -10.190000000000001,
            "l": {
              "f": 11,
              "t": 0.0362247764408446,
              "l": -1.326032275978804,
              "r": -0.20672498450515245
            },
            "r": {
              "f": 11,
              "t": 0.08203933747412012,
              "l": -0.24002166090250096,
              "r": 0.8534127748035791
            }
          },
          "r": {
            "f": 11,
            "t": 0.06437969924812031,
            "l": {
              "f": 20,
              "t": 4.550000000000004,
              "l": 0.0730660219687903,
              "r": 0.6553798645037889
            },
            "r": {
              "f": 20,
              "t": -7.825000000000001,
              "l": 0.47250773809703717,
              "r": 0.9831512466509245
            }
          }
        }
      },
      {
        "f": 26,
        "t": -0.29750000000000015,
        "l": {
          "f": 16,
          "t": 0.2799999999999999,
          "l": {
            "f": 20,
            "t": -2.729999999999997,
            "l": {
              "f": 26,
              "t": -1.2462499999999999,
              "l": -1.2673972260344346,
              "r": -0.772380168245105
            },
            "r": {
              "f": 16,
              "t": -1.6949999999999996,
              "l": -1.0123389537719916,
              "r": -0.4293010839906265
            }
          },
          "r": {
            "f": 10,
            "t": -38.5,
            "l": -1.8988143243603772,
            "r": {
              "f": 18,
              "t": -0.36855000000000004,
              "l": -0.29500336439998787,
              "r": 0.1624032234878281
            }
          }
        },
        "r": {
          "f": 16,
          "t": -1.335,
          "l": {
            "f": 20,
            "t": -18.575,
            "l": {
              "f": 18,
              "t": 0.7311000000000001,
              "l": -1.327527820597364,
              "r": -0.2380096722680574
            },
            "r": {
              "f": 18,
              "t": 0.27415,
              "l": -0.4911400651008282,
              "r": 0.08720641967599096
            }
          },
          "r": {
            "f": 26,
            "t": 1.0174999999999998,
            "l": {
              "f": 6,
              "t": -1.5,
              "l": -0.13461111250091984,
              "r": 0.4519290094709792
            },
            "r": {
              "f": 16,
              "t": 2.060000000000001,
              "l": 0.6105578885519614,
              "r": 1.2457243255519859
            }
          }
        }
      },
      {
        "f": 22,
        "t": -0.03320000000000012,
        "l": {
          "f": 17,
          "t": -0.052585438082057956,
          "l": {
            "f": 8,
            "t": 4.5,
            "l": {
              "f": 26,
              "t": -0.6875000000000001,
              "l": -1.174725202940989,
              "r": -0.690152429069273
            },
            "r": {
              "f": 11,
              "t": 0.023682476943346464,
              "l": -0.7967418824912583,
              "r": 0.15458486733831917
            }
          },
          "r": {
            "f": 11,
            "t": 0.06949620039403326,
            "l": {
              "f": 22,
              "t": -0.4866,
              "l": -0.7140499459108325,
              "r": -0.1654507145719683
            },
            "r": {
              "f": 22,
              "t": -0.6845,
              "l": -0.3139928247252588,
              "r": 0.4252825858131803
            }
          }
        },
        "r": {
          "f": 17,
          "t": -0.005641679446926062,
          "l": {
            "f": 22,
            "t": 0.4277500000000002,
            "l": {
              "f": 11,
              "t": -0.09129352464592733,
              "l": -0.8131227265953134,
              "r": -0.07648571816622253
            },
            "r": {
              "f": 3,
              "t": -19.5,
              "l": -1.0221612838310183,
              "r": 0.4689952598209059
            }
          },
          "r": {
            "f": 22,
            "t": 0.6445000000000001,
            "l": {
              "f": 17,
              "t": 0.6055236093609838,
              "l": 0.304342733881681,
              "r": 0.9038308303343673
            },
            "r": {
              "f": 11,
              "t": -0.04134615384615381,
              "l": 0.5694744342847067,
              "r": 1.0840065538493036
            }
          }
        }
      },
      {
        "f": 22,
        "t": -0.10750000000000014,
        "l": {
          "f": 11,
          "t": -0.014556318332062002,
          "l": {
            "f": 11,
            "t": -0.18448412698412697,
            "l": {
              "f": 6,
              "t": -3.5,
              "l": -1.4705859435289819,
              "r": -0.6706643564019084
            },
            "r": {
              "f": 10,
              "t": 66,
              "l": -0.7556745375795239,
              "r": 0.43731480502658676
            }
          },
          "r": {
            "f": 21,
            "t": 0.7626000000000002,
            "l": {
              "f": 10,
              "t": -6.5,
              "l": -1.6642002964024711,
              "r": -0.39335191079908505
            },
            "r": {
              "f": 26,
              "t": -0.5237500000000002,
              "l": 0.021719767765353892,
              "r": 1.177809217019762
            }
          }
        },
        "r": {
          "f": 22,
          "t": 0.65725,
          "l": {
            "f": 15,
            "t": -0.030549999999999966,
            "l": {
              "f": 11,
              "t": -0.09152298850574714,
              "l": -0.8646976890117418,
              "r": 0.0562682177549673
            },
            "r": {
              "f": 17,
              "t": 0.6055236093609838,
              "l": 0.2657679071558831,
              "r": 0.8694985995549223
            }
          },
          "r": {
            "f": 10,
            "t": 2.5,
            "l": {
              "f": 11,
              "t": -0.014645953978613235,
              "l": 0.27895367625197576,
              "r": 0.8563549641445629
            },
            "r": {
              "f": 24,
              "t": 0.35939999999999994,
              "l": 0.9720266830086709,
              "r": 1.291946185649502
            }
          }
        }
      },
      {
        "f": 22,
        "t": -0.03275000000000011,
        "l": {
          "f": 16,
          "t": -0.11499999999999999,
          "l": {
            "f": 22,
            "t": -0.67485,
            "l": {
              "f": 4,
              "t": -0.7050000000000001,
              "l": -1.102206835889791,
              "r": -0.471745082518711
            },
            "r": {
              "f": 21,
              "t": -0.07520000000000004,
              "l": -0.7428066140361781,
              "r": -0.22188303513130878
            }
          },
          "r": {
            "f": 22,
            "t": -0.5565,
            "l": {
              "f": 10,
              "t": 3.5,
              "l": -0.7202353321688056,
              "r": -0.020183719087731623
            },
            "r": {
              "f": 16,
              "t": 3.01,
              "l": -0.00558881481395809,
              "r": 0.7957664378121999
            }
          }
        },
        "r": {
          "f": 22,
          "t": 0.59985,
          "l": {
            "f": 16,
            "t": -1.3900000000000003,
            "l": {
              "f": 24,
              "t": 0.3451,
              "l": -0.3287304572526212,
              "r": -1.265963556495588
            },
            "r": {
              "f": 16,
              "t": 1.2999999999999994,
              "l": 0.1624350077647083,
              "r": 0.6623488584233801
            }
          },
          "r": {
            "f": 16,
            "t": -2.84,
            "l": -0.8794671046701118,
            "r": {
              "f": 10,
              "t": 1.5,
              "l": 0.6190031156595788,
              "r": 1.0720729233797315
            }
          }
        }
      },
      {
        "f": 22,
        "t": -0.10750000000000014,
        "l": {
          "f": 11,
          "t": 0.06473703601363173,
          "l": {
            "f": 17,
            "t": -0.422176318174714,
            "l": {
              "f": 11,
              "t": -0.24306802642634723,
              "l": -1.5438772670397438,
              "r": -0.9605030810068872
            },
            "r": {
              "f": 8,
              "t": 5.5,
              "l": -0.6365996032252389,
              "r": -0.2216475218085461
            }
          },
          "r": {
            "f": 0,
            "t": -1.205,
            "l": {
              "f": 26,
              "t": -1.4125,
              "l": -1.5624219410080493,
              "r": -0.3822996235854008
            },
            "r": {
              "f": 10,
              "t": 5.5,
              "l": -0.05495426156986079,
              "r": 0.9796141387766159
            }
          }
        },
        "r": {
          "f": 11,
          "t": 0.06433982683982681,
          "l": {
            "f": 22,
            "t": 0.22334999999999997,
            "l": {
              "f": 0,
              "t": -0.16500000000000004,
              "l": -0.5611712105373242,
              "r": 0.091710444794581
            },
            "r": {
              "f": 10,
              "t": 66.5,
              "l": 0.2408068127845333,
              "r": 1.1904141311623513
            }
          },
          "r": {
            "f": 8,
            "t": 2.5,
            "l": {
              "f": 2,
              "t": -1.2500000000000002,
              "l": 0.9702242826156784,
              "r": 0.23653626678142994
            },
            "r": {
              "f": 0,
              "t": -2.29,
              "l": -0.275011835594956,
              "r": 0.9645618793164802
            }
          }
        }
      },
      {
        "f": 26,
        "t": -0.23750000000000038,
        "l": {
          "f": 20,
          "t": -1.4749999999999979,
          "l": {
            "f": 0,
            "t": -0.13000000000000012,
            "l": {
              "f": 4,
              "t": -0.6499999999999999,
              "l": -1.1305951501792515,
              "r": -0.6847708561990908
            },
            "r": {
              "f": 11,
              "t": -0.04590517241379305,
              "l": -0.8849511006018318,
              "r": -0.27518050354205714
            }
          },
          "r": {
            "f": 11,
            "t": -0.10266545049153747,
            "l": {
              "f": 25,
              "t": 0.9762500000000001,
              "l": -1.109105871799689,
              "r": -0.34890071857929755
            },
            "r": {
              "f": 13,
              "t": -0.08171215830629364,
              "l": -0.353972194356469,
              "r": 0.12116638353347534
            }
          }
        },
        "r": {
          "f": 11,
          "t": 0.07067962231005703,
          "l": {
            "f": 21,
            "t": -0.02134999999999998,
            "l": {
              "f": 11,
              "t": -0.13022227888988053,
              "l": -0.8901032963086366,
              "r": -0.05940921645053625
            },
            "r": {
              "f": 26,
              "t": 0.8525000000000001,
              "l": 0.06109786317615723,
              "r": 0.6229363410209091
            }
          },
          "r": {
            "f": 8,
            "t": 0.5,
            "l": {
              "f": 4,
              "t": 1.125,
              "l": 0.021376474159219422,
              "r": 0.5826482969603581
            },
            "r": {
              "f": 4,
              "t": 1.975,
              "l": 0.7516827626980008,
              "r": 1.2464520227069198
            }
          }
        }
      },
      {
        "f": 22,
        "t": 0.24785000000000004,
        "l": {
          "f": 11,
          "t": -0.019047619047619035,
          "l": {
            "f": 16,
            "t": 2.59,
            "l": {
              "f": 22,
              "t": -0.7219499999999999,
              "l": -0.9493768415720032,
              "r": -0.4686099348240989
            },
            "r": {
              "f": 26,
              "t": -2.4987500000000002,
              "l": -1.0675195337488765,
              "r": 1.0647520876208534
            }
          },
          "r": {
            "f": 8,
            "t": -0.5,
            "l": {
              "f": 9,
              "t": -3.5,
              "l": -0.16054833173743827,
              "r": -0.7755100589268983
            },
            "r": {
              "f": 22,
              "t": -0.5531000000000001,
              "l": -0.43467370690816903,
              "r": 0.35127360691286247
            }
          }
        },
        "r": {
          "f": 16,
          "t": -1.2899999999999998,
          "l": {
            "f": 11,
            "t": 0.06923772609819118,
            "l": {
              "f": 23,
              "t": 0.00040000000000000034,
              "l": -0.7155375778956246,
              "r": -0.029679940892520688
            },
            "r": {
              "f": 12,
              "t": -5.5,
              "l": -0.010762096009303838,
              "r": 0.9615609000050764
            }
          },
          "r": {
            "f": 22,
            "t": 0.8235499999999999,
            "l": {
              "f": 13,
              "t": -0.7386330696628085,
              "l": -0.5414108551241987,
              "r": 0.4309659375014402
            },
            "r": {
              "f": 8,
              "t": -6.5,
              "l": 0.5778183617359361,
              "r": 1.0106789727994447
            }
          }
        }
      },
      {
        "f": 22,
        "t": -0.10755000000000008,
        "l": {
          "f": 15,
          "t": -0.08560000000000012,
          "l": {
            "f": 4,
            "t": -0.14499999999999996,
            "l": {
              "f": 8,
              "t": 15.5,
              "l": -0.8206356365038616,
              "r": 0.07349400298965508
            },
            "r": {
              "f": 11,
              "t": -0.1845295055821372,
              "l": -1.4256167244528466,
              "r": -0.013119328227742007
            }
          },
          "r": {
            "f": 22,
            "t": -0.7635500000000002,
            "l": {
              "f": 7,
              "t": 0.6000000000000001,
              "l": -0.6381144063951326,
              "r": -0.05566104164767698
            },
            "r": {
              "f": 11,
              "t": -0.020768633540372727,
              "l": -0.3515531685451475,
              "r": 0.23901571626908721
            }
          }
        },
        "r": {
          "f": 17,
          "t": -0.09464265695903956,
          "l": {
            "f": 22,
            "t": 0.3025999999999999,
            "l": {
              "f": 16,
              "t": -1.575,
              "l": -0.6362193924432481,
              "r": -0.18619915631111947
            },
            "r": {
              "f": 11,
              "t": 0.0215311004784689,
              "l": -0.06685344225324148,
              "r": 0.5281715679039353
            }
          },
          "r": {
            "f": 11,
            "t": 0.14647435897435895,
            "l": {
              "f": 8,
              "t": -1.5,
              "l": 0.04680212909915414,
              "r": 0.49874951890096875
            },
            "r": {
              "f": 2,
              "t": 1.1999999999999997,
              "l": 0.9950816809383832,
              "r": 0.4299250458765113
            }
          }
        }
      },
      {
        "f": 4,
        "t": -0.11499999999999999,
        "l": {
          "f": 15,
          "t": -0.04209999999999997,
          "l": {
            "f": 2,
            "t": -2.105,
            "l": {
              "f": 12,
              "t": 7.5,
              "l": -0.40180271305508264,
              "r": 1.2718632609122817
            },
            "r": {
              "f": 8,
              "t": -0.5,
              "l": -1.008294554281728,
              "r": -0.5678741243571664
            }
          },
          "r": {
            "f": 4,
            "t": -0.8399999999999999,
            "l": {
              "f": 11,
              "t": -0.020768633540372727,
              "l": -0.5727608299690016,
              "r": -0.09865426241986891
            },
            "r": {
              "f": 17,
              "t": 0.38982125033013154,
              "l": -0.062462371699544494,
              "r": 0.4952749604067787
            }
          }
        },
        "r": {
          "f": 15,
          "t": -0.41290000000000004,
          "l": {
            "f": 11,
            "t": 0.08207792207792203,
            "l": {
              "f": 6,
              "t": -16.5,
              "l": -0.7576043791513948,
              "r": -0.03274336265561707
            },
            "r": {
              "f": 8,
              "t": 0.5,
              "l": 0.19895605961765986,
              "r": 0.7971164099635797
            }
          },
          "r": {
            "f": 8,
            "t": 2.5,
            "l": {
              "f": 17,
              "t": 0.6092860225674737,
              "l": 0.1292745633152927,
              "r": 0.7566374515546908
            },
            "r": {
              "f": 4,
              "t": 1.975,
              "l": 0.5755692727810554,
              "r": 1.180212123952528
            }
          }
        }
      },
      {
        "f": 22,
        "t": 0.2236499999999999,
        "l": {
          "f": 11,
          "t": 0.06949620039403326,
          "l": {
            "f": 17,
            "t": -0.4248715653063246,
            "l": {
              "f": 6,
              "t": -16.5,
              "l": -1.024721615662695,
              "r": -0.5699865504136332
            },
            "r": {
              "f": 8,
              "t": 1.5,
              "l": -0.45735192808347935,
              "r": -0.10873288773435665
            }
          },
          "r": {
            "f": 22,
            "t": -0.5555000000000001,
            "l": {
              "f": 26,
              "t": 0.5825000000000001,
              "l": -0.4892799472313588,
              "r": 0.7619225557607885
            },
            "r": {
              "f": 13,
              "t": -0.4054651081081644,
              "l": -0.3811661206028336,
              "r": 0.4496414386154115
            }
          }
        },
        "r": {
          "f": 17,
          "t": 0.14760059347286736,
          "l": {
            "f": 11,
            "t": -0.1234831871345029,
            "l": {
              "f": 24,
              "t": 0.21465,
              "l": -0.8574469480163488,
              "r": 0.4222892850539928
            },
            "r": {
              "f": 10,
              "t": 3.5,
              "l": 0.19346099988761525,
              "r": 0.8502984442199719
            }
          },
          "r": {
            "f": 13,
            "t": -0.49101235520824993,
            "l": {
              "f": 0,
              "t": -0.5549999999999997,
              "l": -1.064621630698585,
              "r": 0.4996029376147614
            },
            "r": {
              "f": 26,
              "t": 3.00375,
              "l": 0.6566449488710249,
              "r": 1.1349685469583943
            }
          }
        }
      },
      {
        "f": 4,
        "t": -0.11499999999999999,
        "l": {
          "f": 17,
          "t": -0.10994939270898352,
          "l": {
            "f": 0,
            "t": -1.0849999999999997,
            "l": {
              "f": 23,
              "t": 0.22945000000000004,
              "l": -1.192291416245715,
              "r": -0.6902440241596491
            },
            "r": {
              "f": 0,
              "t": -0.8050000000000002,
              "l": 0.18081479662795863,
              "r": -0.5333166546433978
            }
          },
          "r": {
            "f": 11,
            "t": 0.13829109062980038,
            "l": {
              "f": 16,
              "t": 3,
              "l": -0.2621019684896044,
              "r": 0.4804537780160848
            },
            "r": {
              "f": 9,
              "t": -4.5,
              "l": 0.014243501846187492,
              "r": 0.7192146753004367
            }
          }
        },
        "r": {
          "f": 11,
          "t": -0.021629046629046633,
          "l": {
            "f": 0,
            "t": 0.41000000000000003,
            "l": {
              "f": 10,
              "t": 37.5,
              "l": -0.2903153245323257,
              "r": 1.0738657171347474
            },
            "r": {
              "f": 10,
              "t": 1.5,
              "l": 0.0838614164797816,
              "r": 0.7312389515984179
            }
          },
          "r": {
            "f": 16,
            "t": -2.425,
            "l": {
              "f": 12,
              "t": -6.5,
              "l": -1.5171566209082077,
              "r": -0.11708481900969683
            },
            "r": {
              "f": 16,
              "t": 2.1950000000000003,
              "l": 0.4031132758969072,
              "r": 0.9901948844092763
            }
          }
        }
      },
      {
        "f": 4,
        "t": -0.41500000000000004,
        "l": {
          "f": 17,
          "t": -0.02359222788501958,
          "l": {
            "f": 11,
            "t": -0.07440993788819872,
            "l": {
              "f": 24,
              "t": 0.0887,
              "l": -0.5030580699717311,
              "r": -1.143819475336022
            },
            "r": {
              "f": 11,
              "t": -0.0682172182374094,
              "l": 0.8187719074670002,
              "r": -0.44258220342020854
            }
          },
          "r": {
            "f": 6,
            "t": -24.5,
            "l": {
              "f": 5,
              "t": -13.5,
              "l": -0.11101274713913933,
              "r": -0.9734952203361926
            },
            "r": {
              "f": 26,
              "t": -1.7375,
              "l": -0.30894638161750193,
              "r": 0.0698944221930965
            }
          }
        },
        "r": {
          "f": 17,
          "t": -0.09762939193857956,
          "l": {
            "f": 11,
            "t": -0.14759615384615388,
            "l": {
              "f": 18,
              "t": -0.18760000000000004,
              "l": 0.28774237452153684,
              "r": -0.8070620527533734
            },
            "r": {
              "f": 4,
              "t": 0.07499999999999996,
              "l": -0.3672160585909186,
              "r": 0.13251463824345355
            }
          },
          "r": {
            "f": 10,
            "t": 10.5,
            "l": {
              "f": 8,
              "t": 0.5,
              "l": 0.12932744898043036,
              "r": 0.5151790792168326
            },
            "r": {
              "f": 17,
              "t": 0.2927095242578719,
              "l": 1.3526527214052972,
              "r": 0.9341454009607719
            }
          }
        }
      },
      {
        "f": 4,
        "t": -0.03,
        "l": {
          "f": 16,
          "t": 1.1800000000000004,
          "l": {
            "f": 8,
            "t": 3.5,
            "l": {
              "f": 21,
              "t": -0.2740499999999998,
              "l": -0.8069492820501775,
              "r": -0.36820299932242734
            },
            "r": {
              "f": 17,
              "t": -0.6017099042904793,
              "l": -0.8150076063545545,
              "r": -0.06576150153462502
            }
          },
          "r": {
            "f": 26,
            "t": -2.0687499999999996,
            "l": {
              "f": 8,
              "t": 13.5,
              "l": -0.5645233188775396,
              "r": 0.7119867651374948
            },
            "r": {
              "f": 16,
              "t": 2.3850000000000002,
              "l": 0.08402767213129154,
              "r": 0.6589116293126434
            }
          }
        },
        "r": {
          "f": 16,
          "t": -1.335,
          "l": {
            "f": 3,
            "t": -17.5,
            "l": {
              "f": 13,
              "t": 0.009901313648090104,
              "l": -1.9593370676870134,
              "r": -0.2930739842297046
            },
            "r": {
              "f": 17,
              "t": -1.1698663167671652,
              "l": 0.975649516141306,
              "r": -0.23607937174654056
            }
          },
          "r": {
            "f": 16,
            "t": 2.29,
            "l": {
              "f": 10,
              "t": 65.5,
              "l": 0.2098266536127452,
              "r": 1.012603010491919
            },
            "r": {
              "f": 4,
              "t": 0.015000000000000013,
              "l": -0.32942065611995663,
              "r": 0.9204676626404188
            }
          }
        }
      },
      {
        "f": 22,
        "t": 0.43115,
        "l": {
          "f": 16,
          "t": -0.6849999999999998,
          "l": {
            "f": 10,
            "t": 68.5,
            "l": {
              "f": 13,
              "t": -0.5148097085905794,
              "l": -0.9107472563012591,
              "r": -0.37433171052193187
            },
            "r": 0.8092070376566489
          },
          "r": {
            "f": 22,
            "t": -0.6188,
            "l": {
              "f": 10,
              "t": 4.5,
              "l": -0.4777124304812468,
              "r": 0.06077470475815733
            },
            "r": {
              "f": 0,
              "t": -0.15500000000000003,
              "l": -0.2132568300465408,
              "r": 0.20125813252417613
            }
          }
        },
        "r": {
          "f": 16,
          "t": -1.4100000000000004,
          "l": {
            "f": 23,
            "t": 0.006199999999999988,
            "l": {
              "f": 24,
              "t": 0.44625,
              "l": -0.3237187576892677,
              "r": -1.5365890858505136
            },
            "r": {
              "f": 0,
              "t": -2.6100000000000003,
              "l": -0.9258007367411234,
              "r": 0.5520532200662139
            }
          },
          "r": {
            "f": 22,
            "t": 0.7472000000000001,
            "l": {
              "f": 7,
              "t": -0.2,
              "l": -0.15207505780886232,
              "r": 0.5118476750397044
            },
            "r": {
              "f": 0,
              "t": -1.7599999999999998,
              "l": 0.10208702514482491,
              "r": 0.7609289425857985
            }
          }
        }
      },
      {
        "f": 26,
        "t": 0.9037499999999998,
        "l": {
          "f": 11,
          "t": 0.08847556698620529,
          "l": {
            "f": 6,
            "t": -8.5,
            "l": {
              "f": 16,
              "t": 1.5799999999999998,
              "l": -0.5665428827707454,
              "r": 0.14799711322000733
            },
            "r": {
              "f": 8,
              "t": 1.5,
              "l": -0.27853222923980653,
              "r": 0.008292839407429847
            }
          },
          "r": {
            "f": 10,
            "t": -64.5,
            "l": -1.229916731870718,
            "r": {
              "f": 8,
              "t": -2.5,
              "l": -0.22490372326180744,
              "r": 0.3935026518605668
            }
          }
        },
        "r": {
          "f": 11,
          "t": -0.039483537790234224,
          "l": {
            "f": 10,
            "t": 65.5,
            "l": {
              "f": 12,
              "t": 7.5,
              "l": -0.3405253739293248,
              "r": 0.2412531780337768
            },
            "r": {
              "f": 5,
              "t": 19,
              "l": 0.5019038736747611,
              "r": 1.32530307015247
            }
          },
          "r": {
            "f": 8,
            "t": -2.5,
            "l": {
              "f": 25,
              "t": -0.7402500000000001,
              "l": -0.031047554503160244,
              "r": 0.6796656259153424
            },
            "r": {
              "f": 5,
              "t": -13.5,
              "l": 1.0114407743202845,
              "r": 0.5905702598656097
            }
          }
        }
      },
      {
        "f": 22,
        "t": 0.22290000000000001,
        "l": {
          "f": 11,
          "t": 0.08877941981390255,
          "l": {
            "f": 16,
            "t": 3.0599999999999996,
            "l": {
              "f": 11,
              "t": -0.10000000000000003,
              "l": -0.569636786364074,
              "r": -0.22524431281923554
            },
            "r": {
              "f": 8,
              "t": -2.5,
              "l": 1.1801427022473077,
              "r": 0.4118519091289396
            }
          },
          "r": {
            "f": 10,
            "t": -9,
            "l": -1.5042605259946706,
            "r": {
              "f": 8,
              "t": -2.5,
              "l": -0.19935258415651622,
              "r": 0.3797288079128834
            }
          }
        },
        "r": {
          "f": 22,
          "t": 0.7469000000000001,
          "l": {
            "f": 8,
            "t": -19.5,
            "l": -1.4557487995376246,
            "r": {
              "f": 11,
              "t": -0.12309382553284998,
              "l": -0.3786023568691591,
              "r": 0.2616282793311411
            }
          },
          "r": {
            "f": 21,
            "t": -1.4901,
            "l": -0.7134438043372142,
            "r": {
              "f": 11,
              "t": -0.18118686868686867,
              "l": -0.6100329602627195,
              "r": 0.6999058244043893
            }
          }
        }
      },
      {
        "f": 22,
        "t": -0.13099999999999995,
        "l": {
          "f": 11,
          "t": 0.06949620039403326,
          "l": {
            "f": 0,
            "t": 1.9000000000000001,
            "l": {
              "f": 12,
              "t": -21.5,
              "l": 0.3775380465309393,
              "r": -0.45722327759166204
            },
            "r": {
              "f": 22,
              "t": -0.98875,
              "l": -0.7550405193991973,
              "r": 0.2837341624198515
            }
          },
          "r": {
            "f": 13,
            "t": -0.37839192642318564,
            "l": {
              "f": 17,
              "t": 0.4683105948437715,
              "l": -0.7956906667148405,
              "r": 0.750359344155764
            },
            "r": {
              "f": 22,
              "t": -0.6824500000000001,
              "l": -0.24349351588462137,
              "r": 0.3675604668204076
            }
          }
        },
        "r": {
          "f": 17,
          "t": 0.12613826918024262,
          "l": {
            "f": 22,
            "t": 0.8228500000000001,
            "l": {
              "f": 13,
              "t": -0.7397681439300783,
              "l": -0.9363546617043996,
              "r": -0.051967716548355296
            },
            "r": {
              "f": 24,
              "t": 0.31325,
              "l": 0.7696278172973569,
              "r": 0.18225739845065891
            }
          },
          "r": {
            "f": 8,
            "t": -2.5,
            "l": {
              "f": 17,
              "t": 0.2301499563912176,
              "l": -0.3833501272668116,
              "r": 0.2618380800136503
            },
            "r": {
              "f": 16,
              "t": 1.955,
              "l": 0.3847051136407775,
              "r": 0.8104754213498665
            }
          }
        }
      },
      {
        "f": 4,
        "t": -0.12999999999999995,
        "l": {
          "f": 11,
          "t": 0.08877941981390261,
          "l": {
            "f": 6,
            "t": -7.5,
            "l": {
              "f": 13,
              "t": 0.297872256011964,
              "l": -0.6827703478314847,
              "r": -0.30065908731180396
            },
            "r": {
              "f": 17,
              "t": -0.028520368678795316,
              "l": -0.4237882501034793,
              "r": 0.00952803517692046
            }
          },
          "r": {
            "f": 24,
            "t": 0.3797499999999999,
            "l": {
              "f": 8,
              "t": 3.5,
              "l": 0.08111472570647933,
              "r": 0.7550735012195566
            },
            "r": {
              "f": 25,
              "t": 2.5427,
              "l": -0.8464557225707923,
              "r": 0.4284258133877264
            }
          }
        },
        "r": {
          "f": 11,
          "t": -0.03957268341853265,
          "l": {
            "f": 15,
            "t": 0.2684,
            "l": {
              "f": 10,
              "t": 69.5,
              "l": -0.3201766184394042,
              "r": 1.061866440698165
            },
            "r": {
              "f": 13,
              "t": -0.2191274654655777,
              "l": -0.3254541287883462,
              "r": 0.4783948485242996
            }
          },
          "r": {
            "f": 13,
            "t": -0.36659227680989104,
            "l": {
              "f": 23,
              "t": 0.009999999999999981,
              "l": 0.3282853288706341,
              "r": -0.31540882002585313
            },
            "r": {
              "f": 4,
              "t": 2.2800000000000002,
              "l": 0.36284741789599684,
              "r": 0.9372928300094105
            }
          }
        }
      },
      {
        "f": 22,
        "t": -0.16539999999999994,
        "l": {
          "f": 10,
          "t": 6.5,
          "l": {
            "f": 8,
            "t": 4.5,
            "l": {
              "f": 16,
              "t": -1.75,
              "l": -0.951628695132451,
              "r": -0.3740271519022578
            },
            "r": {
              "f": 22,
              "t": -0.49419999999999986,
              "l": -0.30503129926702893,
              "r": 0.19424693783278457
            }
          },
          "r": {
            "f": 10,
            "t": 76.5,
            "l": {
              "f": 4,
              "t": -0.52,
              "l": -0.07479635023439513,
              "r": 1.1288778981537633
            },
            "r": 1.329383105842494
          }
        },
        "r": {
          "f": 16,
          "t": 0.7399999999999999,
          "l": {
            "f": 22,
            "t": 0.25584999999999997,
            "l": {
              "f": 16,
              "t": 0.6100000000000001,
              "l": -0.13554800003952544,
              "r": -1.1594481514666226
            },
            "r": {
              "f": 11,
              "t": -0.12318766937669379,
              "l": -0.43868385044951536,
              "r": 0.3056391963513315
            }
          },
          "r": {
            "f": 16,
            "t": 2.4050000000000002,
            "l": {
              "f": 10,
              "t": 2.5,
              "l": 0.15261314642249735,
              "r": 0.6097374309557236
            },
            "r": {
              "f": 14,
              "t": -1.5,
              "l": -0.14767850946287792,
              "r": 0.8028442600625422
            }
          }
        }
      },
      {
        "f": 22,
        "t": 0.25,
        "l": {
          "f": 16,
          "t": -1.66,
          "l": {
            "f": 6,
            "t": -14.5,
            "l": {
              "f": 17,
              "t": -0.40454617088394895,
              "l": -0.9543351587152648,
              "r": 0.2087739566705592
            },
            "r": {
              "f": 22,
              "t": 0.03464999999999996,
              "l": -0.19773203542613105,
              "r": -0.9234490996453377
            }
          },
          "r": {
            "f": 11,
            "t": 0.06642934360325664,
            "l": {
              "f": 13,
              "t": -0.16396623753653938,
              "l": -0.423853602860546,
              "r": -0.06426728333499176
            },
            "r": {
              "f": 9,
              "t": -1.5,
              "l": -0.008058257746464641,
              "r": 0.5075762038736249
            }
          }
        },
        "r": {
          "f": 16,
          "t": 1.935,
          "l": {
            "f": 10,
            "t": 1.5,
            "l": {
              "f": 13,
              "t": -0.49101235520824993,
              "l": -0.3984450005306441,
              "r": 0.18498337499148948
            },
            "r": {
              "f": 5,
              "t": -12.5,
              "l": 1.0347884635920093,
              "r": 0.41440248057520035
            }
          },
          "r": {
            "f": 15,
            "t": 2.1483499999999998,
            "l": {
              "f": 15,
              "t": 0.1885000000000001,
              "l": 0.3994170864023799,
              "r": 0.9575795406245033
            },
            "r": {
              "f": 11,
              "t": 0.12952063416459697,
              "l": -0.8329574297773314,
              "r": 1.21236136159308
            }
          }
        }
      },
      {
        "f": 11,
        "t": -0.02560246770773089,
        "l": {
          "f": 10,
          "t": 36,
          "l": {
            "f": 12,
            "t": 7.5,
            "l": {
              "f": 26,
              "t": -1.41875,
              "l": -0.666072621269481,
              "r": -0.29575075774999826
            },
            "r": {
              "f": 11,
              "t": -0.1986576289207868,
              "l": -0.5396092192202814,
              "r": 0.02823019326597775
            }
          },
          "r": {
            "f": 26,
            "t": -1.88625,
            "l": -0.4874052115377717,
            "r": {
              "f": 15,
              "t": 0.011400000000000077,
              "l": 1.3954509856132773,
              "r": 0.49744518062711957
            }
          }
        },
        "r": {
          "f": 22,
          "t": -0.35675,
          "l": {
            "f": 26,
            "t": 0.905,
            "l": {
              "f": 10,
              "t": -3.5,
              "l": -0.8190333309251892,
              "r": -0.1599914235926931
            },
            "r": {
              "f": 8,
              "t": 0.5,
              "l": -0.2963782421862325,
              "r": 1.1143990367600227
            }
          },
          "r": {
            "f": 8,
            "t": -0.5,
            "l": {
              "f": 3,
              "t": -14.5,
              "l": -0.9671524654793461,
              "r": 0.1088205749128244
            },
            "r": {
              "f": 10,
              "t": -8.5,
              "l": -1.079587339513693,
              "r": 0.4280713829439683
            }
          }
        }
      },
      {
        "f": 4,
        "t": -0.41000000000000003,
        "l": {
          "f": 15,
          "t": -0.009000000000000064,
          "l": {
            "f": 16,
            "t": 1.1749999999999998,
            "l": {
              "f": 6,
              "t": -9.5,
              "l": -0.7131297093642087,
              "r": -0.3544820703542413
            },
            "r": {
              "f": 25,
              "t": 0.63825,
              "l": 0.7239176206085927,
              "r": -0.7309779426669311
            }
          },
          "r": {
            "f": 22,
            "t": -1.7465499999999996,
            "l": {
              "f": 8,
              "t": 4.5,
              "l": -1.1831887120387574,
              "r": 0.06496508018928417
            },
            "r": {
              "f": 5,
              "t": 53.5,
              "l": -0.04543189212942791,
              "r": -1.2717276476003343
            }
          }
        },
        "r": {
          "f": 16,
          "t": -1.265,
          "l": {
            "f": 18,
            "t": -0.2328,
            "l": {
              "f": 26,
              "t": 0.2925000000000002,
              "l": 0.006110577271870473,
              "r": 1.5682237896131823
            },
            "r": {
              "f": 22,
              "t": 0.6564000000000001,
              "l": -0.3979661251843825,
              "r": 0.10920285634253124
            }
          },
          "r": {
            "f": 26,
            "t": 3.2750000000000004,
            "l": {
              "f": 8,
              "t": -0.5,
              "l": 0.005612952676426533,
              "r": 0.29165465657075357
            },
            "r": {
              "f": 16,
              "t": -0.59,
              "l": 1.2306729221999833,
              "r": 0.7394503324576023
            }
          }
        }
      },
      {
        "f": 4,
        "t": -0.11499999999999999,
        "l": {
          "f": 8,
          "t": 4.5,
          "l": {
            "f": 6,
            "t": -7.5,
            "l": {
              "f": 18,
              "t": 0.08510000000000012,
              "l": -0.5329425070923017,
              "r": -1.6592011836279001
            },
            "r": {
              "f": 0,
              "t": -1.335,
              "l": -0.9420029139599522,
              "r": -0.10939627639559978
            }
          },
          "r": {
            "f": 22,
            "t": -1.2513500000000002,
            "l": {
              "f": 23,
              "t": 0.002100000000000002,
              "l": 0.14819418818232272,
              "r": -1.0146261454177823
            },
            "r": {
              "f": 25,
              "t": 3.26635,
              "l": 0.05466292694631823,
              "r": 0.8433654176835994
            }
          }
        },
        "r": {
          "f": 22,
          "t": 0.7469000000000001,
          "l": {
            "f": 0,
            "t": -0.04499999999999993,
            "l": {
              "f": 23,
              "t": -0.0327,
              "l": 0.26008254499183686,
              "r": -0.1856687272266004
            },
            "r": {
              "f": 13,
              "t": -0.6529363969046582,
              "l": -0.6036155517110547,
              "r": 0.30820324367811147
            }
          },
          "r": {
            "f": 2,
            "t": 2.89,
            "l": {
              "f": 0,
              "t": -1.9450000000000003,
              "l": 0.003640255272482783,
              "r": 0.6120516964173218
            },
            "r": -0.8446751664287071
          }
        }
      },
      {
        "f": 4,
        "t": -0.5499999999999998,
        "l": {
          "f": 8,
          "t": 5.5,
          "l": {
            "f": 25,
            "t": -1.4665499999999998,
            "l": {
              "f": 1,
              "t": -9,
              "l": -0.9934832337760946,
              "r": -1.6623727921024587
            },
            "r": {
              "f": 2,
              "t": -2.1149999999999998,
              "l": 0.3022118449866733,
              "r": -0.32249888904318413
            }
          },
          "r": {
            "f": 23,
            "t": 0.010399999999999996,
            "l": {
              "f": 4,
              "t": -3.69,
              "l": -1.2640254963773603,
              "r": 0.3141710061579998
            },
            "r": {
              "f": 23,
              "t": 0.052450000000000024,
              "l": -0.7659363569338107,
              "r": 0.13182416645743436
            }
          }
        },
        "r": {
          "f": 16,
          "t": -1.3500000000000003,
          "l": {
            "f": 13,
            "t": -0.7744778653075288,
            "l": -1.2368413199641903,
            "r": {
              "f": 20,
              "t": -21.995,
              "l": -0.7708174639736693,
              "r": -0.08386170325554317
            }
          },
          "r": {
            "f": 8,
            "t": -0.5,
            "l": {
              "f": 23,
              "t": -0.05685000000000001,
              "l": 0.5111731165695392,
              "r": -0.055782990616625595
            },
            "r": {
              "f": 20,
              "t": -25.745,
              "l": -0.45491529192147395,
              "r": 0.3347616975372889
            }
          }
        }
      },
      {
        "f": 22,
        "t": 0.22319999999999995,
        "l": {
          "f": 16,
          "t": 1.2099999999999997,
          "l": {
            "f": 13,
            "t": 1.5387004388380816,
            "l": {
              "f": 16,
              "t": -1.6649999999999998,
              "l": -0.4793038390742163,
              "r": -0.1420821475198929
            },
            "r": 1.2994953778161595
          },
          "r": {
            "f": 22,
            "t": -0.29910000000000003,
            "l": {
              "f": 21,
              "t": 0.7496,
              "l": -0.4043075343690815,
              "r": 0.14892144021564419
            },
            "r": {
              "f": 13,
              "t": 0.6207844108761078,
              "l": 0.29763274884973356,
              "r": 1.1240555187751637
            }
          }
        },
        "r": {
          "f": 10,
          "t": 4.5,
          "l": {
            "f": 16,
            "t": 1.725,
            "l": {
              "f": 24,
              "t": -0.14044999999999996,
              "l": 0.5583257476059567,
              "r": 0.0873135794220926
            },
            "r": {
              "f": 13,
              "t": 0.9017969634375289,
              "l": 0.7044897830568245,
              "r": -0.5231318608629842
            }
          },
          "r": {
            "f": 25,
            "t": 1.0112999999999999,
            "l": {
              "f": 12,
              "t": -12.5,
              "l": 1.206925231709739,
              "r": 0.7591656665526031
            },
            "r": {
              "f": 21,
              "t": 1.0967500000000003,
              "l": -0.5149138539824261,
              "r": 0.8021208649735153
            }
          }
        }
      },
      {
        "f": 4,
        "t": -0.08,
        "l": {
          "f": 11,
          "t": -0.10726477440212995,
          "l": {
            "f": 11,
            "t": -0.25604603729603737,
            "l": {
              "f": 20,
              "t": -17.190000000000005,
              "l": -0.6796433144096584,
              "r": -1.3462668872042
            },
            "r": {
              "f": 12,
              "t": 15.5,
              "l": -0.5528220636212975,
              "r": 0.1958606063402783
            }
          },
          "r": {
            "f": 15,
            "t": 0.014849999999999919,
            "l": {
              "f": 19,
              "t": -3.50665,
              "l": 1.1424669676434067,
              "r": -0.3364828739105412
            },
            "r": {
              "f": 17,
              "t": 1.5409911680314097,
              "l": 0.09736434547418615,
              "r": -1.1407543696583482
            }
          }
        },
        "r": {
          "f": 10,
          "t": 12.5,
          "l": {
            "f": 11,
            "t": 0.06530100334448158,
            "l": {
              "f": 0,
              "t": -1.2500000000000002,
              "l": -0.3046158367699596,
              "r": 0.07491621859523608
            },
            "r": {
              "f": 23,
              "t": -0.07759999999999999,
              "l": 0.9114887246401894,
              "r": 0.282721593863283
            }
          },
          "r": {
            "f": 0,
            "t": 3.0700000000000003,
            "l": {
              "f": 8,
              "t": 6.5,
              "l": 0.6240726126488261,
              "r": 1.2009437142055552
            },
            "r": -0.3497480724776082
          }
        }
      },
      {
        "f": 22,
        "t": 0.46725000000000005,
        "l": {
          "f": 15,
          "t": -0.12704999999999977,
          "l": {
            "f": 8,
            "t": -2.5,
            "l": {
              "f": 17,
              "t": -1.3672512918569213,
              "l": 0.8239578922944969,
              "r": -0.521235569389102
            },
            "r": {
              "f": 6,
              "t": -1.5,
              "l": -0.296791974178335,
              "r": 0.034670122687421145
            }
          },
          "r": {
            "f": 22,
            "t": -0.7198500000000001,
            "l": {
              "f": 10,
              "t": -0.5,
              "l": -0.7471924314199714,
              "r": -0.004591693540125883
            },
            "r": {
              "f": 18,
              "t": 0.24435000000000004,
              "l": 0.1735079749348804,
              "r": -0.19231410275520508
            }
          }
        },
        "r": {
          "f": 24,
          "t": -0.03359999999999999,
          "l": {
            "f": 13,
            "t": 0.8442876164964119,
            "l": {
              "f": 19,
              "t": 2.2625,
              "l": 0.7541659027576046,
              "r": -0.1165057218803424
            },
            "r": -0.4770835123736352
          },
          "r": {
            "f": 10,
            "t": 1.5,
            "l": {
              "f": 22,
              "t": 1.5685000000000002,
              "l": -0.07409997168631388,
              "r": 0.6550592668942468
            },
            "r": {
              "f": 19,
              "t": -1.624,
              "l": -0.4643265020151367,
              "r": 0.6406479743393559
            }
          }
        }
      },
      {
        "f": 11,
        "t": 0.06483221943748263,
        "l": {
          "f": 10,
          "t": 66.5,
          "l": {
            "f": 0,
            "t": -1.3,
            "l": {
              "f": 16,
              "t": 0.2250000000000002,
              "l": -0.48762122724224194,
              "r": 0.3313685955366897
            },
            "r": {
              "f": 4,
              "t": -0.5,
              "l": -0.2368109396018627,
              "r": 0.020858276570891086
            }
          },
          "r": {
            "f": 7,
            "t": -2.15,
            "l": -0.887410844488612,
            "r": {
              "f": 17,
              "t": -0.38698081268580375,
              "l": 1.66428794101384,
              "r": 0.5491338933031693
            }
          }
        },
        "r": {
          "f": 4,
          "t": -0.42000000000000004,
          "l": {
            "f": 21,
            "t": -0.19735000000000003,
            "l": {
              "f": 5,
              "t": -14,
              "l": -0.11469864950221495,
              "r": -1.1004924775792237
            },
            "r": {
              "f": 14,
              "t": 0.5,
              "l": 0.21025246385000945,
              "r": -0.834322079283554
            }
          },
          "r": {
            "f": 12,
            "t": 12.5,
            "l": {
              "f": 4,
              "t": 1.125,
              "l": 0.13583432940400672,
              "r": 0.562863291911647
            },
            "r": {
              "f": 19,
              "t": 0.8926499999999999,
              "l": 1.0822156382441555,
              "r": 0.4198816129175526
            }
          }
        }
      },
      {
        "f": 4,
        "t": -0.41000000000000003,
        "l": {
          "f": 25,
          "t": 0.25460000000000016,
          "l": {
            "f": 13,
            "t": -0.20026949488605417,
            "l": {
              "f": 1,
              "t": -8.5,
              "l": -0.21901149414635193,
              "r": -1.0865731787424644
            },
            "r": {
              "f": 16,
              "t": 1.8800000000000003,
              "l": -0.31637254504230927,
              "r": 0.9504041253141696
            }
          },
          "r": {
            "f": 24,
            "t": -0.8978,
            "l": -1.2915541881020296,
            "r": {
              "f": 24,
              "t": 1.48765,
              "l": -0.04303972934047464,
              "r": -0.8457376269874303
            }
          }
        },
        "r": {
          "f": 17,
          "t": 0.6063915947600986,
          "l": {
            "f": 10,
            "t": 68.5,
            "l": {
              "f": 21,
              "t": -2.2505500000000005,
              "l": -1.0212284666339344,
              "r": 0.011524918188523876
            },
            "r": {
              "f": 18,
              "t": -0.004400000000000015,
              "l": 1.5084651677207588,
              "r": 0.8101100727588932
            }
          },
          "r": {
            "f": 20,
            "t": -1.2750000000000021,
            "l": {
              "f": 21,
              "t": 0.4046000000000002,
              "l": -0.6387068194401218,
              "r": 0.8697510071914692
            },
            "r": {
              "f": 0,
              "t": 3.8100000000000005,
              "l": 0.7779858104199968,
              "r": -0.5309930128421425
            }
          }
        }
      },
      {
        "f": 4,
        "t": -0.11499999999999999,
        "l": {
          "f": 16,
          "t": 2.29,
          "l": {
            "f": 10,
            "t": -2.5,
            "l": {
              "f": 7,
              "t": -0.3999999999999999,
              "l": -0.17340352396740719,
              "r": -0.5743989567451832
            },
            "r": {
              "f": 9,
              "t": -8.5,
              "l": 0.6657029017133089,
              "r": -0.160404067093064
            }
          },
          "r": {
            "f": 7,
            "t": -0.30000000000000004,
            "l": {
              "f": 23,
              "t": 0.06845000000000004,
              "l": 0.4445669049186557,
              "r": -0.6446184339476115
            },
            "r": {
              "f": 3,
              "t": 16.5,
              "l": 0.6193038054590418,
              "r": -0.24041541172642056
            }
          }
        },
        "r": {
          "f": 16,
          "t": -1.435,
          "l": {
            "f": 3,
            "t": -17.5,
            "l": {
              "f": 9,
              "t": -0.5,
              "l": -1.971515092220381,
              "r": -0.7826159012440438
            },
            "r": {
              "f": 9,
              "t": 7.5,
              "l": -0.04167215782271029,
              "r": -0.8286716654623169
            }
          },
          "r": {
            "f": 26,
            "t": 3.02875,
            "l": {
              "f": 21,
              "t": 0.6264000000000004,
              "l": 0.06672909207022101,
              "r": 0.415896491504619
            },
            "r": {
              "f": 4,
              "t": 4.495,
              "l": 0.7819874667136281,
              "r": -0.009076460493184951
            }
          }
        }
      },
      {
        "f": 15,
        "t": -0.20255,
        "l": {
          "f": 26,
          "t": -0.3024999999999998,
          "l": {
            "f": 3,
            "t": 6.5,
            "l": {
              "f": 16,
              "t": 0.22499999999999987,
              "l": -0.32195742280131345,
              "r": 0.5779537167566261
            },
            "r": {
              "f": 2,
              "t": -2.355,
              "l": 0.38077254047664033,
              "r": -0.8343909467182484
            }
          },
          "r": {
            "f": 6,
            "t": -16.5,
            "l": {
              "f": 2,
              "t": -1.6199999999999999,
              "l": 0.3073870375091338,
              "r": -0.4006416287278487
            },
            "r": {
              "f": 24,
              "t": -0.13470000000000001,
              "l": 0.6199984014582712,
              "r": 0.013765827877049767
            }
          }
        },
        "r": {
          "f": 8,
          "t": 2.5,
          "l": {
            "f": 21,
            "t": -0.10164999999999991,
            "l": {
              "f": 1,
              "t": 9.5,
              "l": -0.5485225255175082,
              "r": 0.22721368610220716
            },
            "r": {
              "f": 12,
              "t": -11.5,
              "l": 0.30200946163016634,
              "r": -0.03280554307518909
            }
          },
          "r": {
            "f": 17,
            "t": -0.4395886556917473,
            "l": {
              "f": 16,
              "t": -1.6949999999999998,
              "l": 0.7482056423734691,
              "r": -0.9425306645071676
            },
            "r": {
              "f": 16,
              "t": -0.8499999999999999,
              "l": 0.6903950419322245,
              "r": 0.24065323627401133
            }
          }
        }
      },
      {
        "f": 11,
        "t": -0.1008316080055211,
        "l": {
          "f": 10,
          "t": 7.5,
          "l": {
            "f": 24,
            "t": 0.073,
            "l": {
              "f": 5,
              "t": -12.5,
              "l": 0.3450604585300837,
              "r": -0.29449039380595665
            },
            "r": {
              "f": 14,
              "t": -0.5,
              "l": -1.4815759761926648,
              "r": -0.4741369400562655
            }
          },
          "r": {
            "f": 5,
            "t": -3.5,
            "l": -0.7339172744511759,
            "r": {
              "f": 16,
              "t": 0.6950000000000003,
              "l": 1.2479233205889653,
              "r": 0.29130659659409214
            }
          }
        },
        "r": {
          "f": 11,
          "t": 0.14919908466819226,
          "l": {
            "f": 16,
            "t": 2.3249999999999997,
            "l": {
              "f": 10,
              "t": 5.5,
              "l": -0.0853509257735562,
              "r": 0.3609845514870256
            },
            "r": {
              "f": 1,
              "t": 25.5,
              "l": 0.5030849857733919,
              "r": -1.1870517790674016
            }
          },
          "r": {
            "f": 10,
            "t": -7.5,
            "l": -1.0706693210005618,
            "r": {
              "f": 11,
              "t": 0.15542706167706166,
              "l": 1.2021438332594703,
              "r": 0.3540561626918093
            }
          }
        }
      },
      {
        "f": 11,
        "t": 0.06543040293040292,
        "l": {
          "f": 11,
          "t": -0.18632721905966687,
          "l": {
            "f": 5,
            "t": 22.5,
            "l": {
              "f": 25,
              "t": -0.17845000000000016,
              "l": -1.0143985454106481,
              "r": -0.40772342979541987
            },
            "r": {
              "f": 2,
              "t": 0.7450000000000001,
              "l": 0.7775242654349822,
              "r": -0.2701834085028606
            }
          },
          "r": {
            "f": 10,
            "t": 70.5,
            "l": {
              "f": 13,
              "t": -0.12963242986410206,
              "l": -0.2622055776417288,
              "r": -0.010689073494024324
            },
            "r": {
              "f": 26,
              "t": -2.3475,
              "l": -0.39503194028925276,
              "r": 0.7591417129298027
            }
          }
        },
        "r": {
          "f": 10,
          "t": -8.5,
          "l": {
            "f": 12,
            "t": -12.5,
            "l": 0.14846213205886163,
            "r": -1.323982000523999
          },
          "r": {
            "f": 13,
            "t": -0.34234702242444337,
            "l": {
              "f": 2,
              "t": 0.6950000000000001,
              "l": 0.14748828044282405,
              "r": -0.7312306003254749
            },
            "r": {
              "f": 18,
              "t": -0.37820000000000004,
              "l": 0.04470895622686806,
              "r": 0.46531266679653915
            }
          }
        }
      },
      {
        "f": 20,
        "t": -10.145,
        "l": {
          "f": 26,
          "t": 0.07500000000000007,
          "l": {
            "f": 2,
            "t": -1.5949999999999998,
            "l": {
              "f": 20,
              "t": -22.939999999999998,
              "l": 0.8999623437564213,
              "r": -0.15924903781466052
            },
            "r": {
              "f": 20,
              "t": -15.375,
              "l": -0.648259202076824,
              "r": -0.1895624911971413
            }
          },
          "r": {
            "f": 16,
            "t": -2.195,
            "l": {
              "f": 3,
              "t": -16.5,
              "l": -1.6561216717442708,
              "r": -0.23340048991209378
            },
            "r": {
              "f": 26,
              "t": 3.44125,
              "l": -0.02508057757782758,
              "r": 0.7922359358141535
            }
          }
        },
        "r": {
          "f": 13,
          "t": -0.49771402621643945,
          "l": {
            "f": 12,
            "t": -16.5,
            "l": {
              "f": 25,
              "t": -0.7267,
              "l": -0.5616856751503204,
              "r": 0.23210443842740536
            },
            "r": {
              "f": 16,
              "t": 2.9699999999999998,
              "l": -0.7528250727002398,
              "r": 0.5910484535538764
            }
          },
          "r": {
            "f": 26,
            "t": 1.4024999999999999,
            "l": {
              "f": 12,
              "t": -10.5,
              "l": 0.5143466095102902,
              "r": 0.001405173924090536
            },
            "r": {
              "f": 5,
              "t": -13.5,
              "l": 1.006970219947661,
              "r": 0.2939374269464148
            }
          }
        }
      },
      {
        "f": 22,
        "t": 0.46725000000000005,
        "l": {
          "f": 21,
          "t": -0.23819999999999997,
          "l": {
            "f": 13,
            "t": -0.5108256237659907,
            "l": {
              "f": 6,
              "t": -31.5,
              "l": -0.041177635877346935,
              "r": -0.8280757034152078
            },
            "r": {
              "f": 17,
              "t": -1.0334262845556972,
              "l": 0.3356828290675458,
              "r": -0.21972294252273653
            }
          },
          "r": {
            "f": 10,
            "t": 2.5,
            "l": {
              "f": 24,
              "t": -0.8764,
              "l": -1.5543196489714055,
              "r": -0.06286779659225293
            },
            "r": {
              "f": 8,
              "t": -15.5,
              "l": 1.055216353150987,
              "r": 0.15995267362664706
            }
          }
        },
        "r": {
          "f": 21,
          "t": -1.47915,
          "l": {
            "f": 5,
            "t": 2,
            "l": -1.2438710842719387,
            "r": -0.08031842272677119
          },
          "r": {
            "f": 24,
            "t": -0.03359999999999999,
            "l": {
              "f": 21,
              "t": -0.8833000000000001,
              "l": 1.2686088538339166,
              "r": 0.5825243364710656
            },
            "r": {
              "f": 19,
              "t": -1.70335,
              "l": -0.83688286754985,
              "r": 0.2535699089061668
            }
          }
        }
      },
      {
        "f": 16,
        "t": -1.435,
        "l": {
          "f": 10,
          "t": 69,
          "l": {
            "f": 9,
            "t": 9.5,
            "l": {
              "f": 24,
              "t": 0.02045,
              "l": -0.037477334502002906,
              "r": -0.42274667897141915
            },
            "r": {
              "f": 18,
              "t": -0.299,
              "l": -0.4990469621405971,
              "r": -1.2250248242590867
            }
          },
          "r": 0.8424449812085647
        },
        "r": {
          "f": 22,
          "t": 0.7562,
          "l": {
            "f": 8,
            "t": 1.5,
            "l": {
              "f": 9,
              "t": -5.5,
              "l": 0.18907074946462366,
              "r": -0.17797721619265272
            },
            "r": {
              "f": 26,
              "t": -5.9925,
              "l": -1.229193341684111,
              "r": 0.12281781534816583
            }
          },
          "r": {
            "f": 0,
            "t": -1.7649999999999997,
            "l": {
              "f": 18,
              "t": 0.99285,
              "l": -1.305251728436605,
              "r": 0.3824458803654292
            },
            "r": {
              "f": 1,
              "t": 34.5,
              "l": 0.5922146168649235,
              "r": -0.6607127686516339
            }
          }
        }
      },
      {
        "f": 11,
        "t": -0.019465757317419674,
        "l": {
          "f": 14,
          "t": 0.5,
          "l": {
            "f": 13,
            "t": -0.49771402621643945,
            "l": {
              "f": 8,
              "t": -17.5,
              "l": 0.20199619814868575,
              "r": -0.966760439913207
            },
            "r": {
              "f": 8,
              "t": -12.5,
              "l": 1.092643601570549,
              "r": -0.1951128862532258
            }
          },
          "r": {
            "f": 11,
            "t": -0.25136165577342046,
            "l": {
              "f": 25,
              "t": 0.9308000000000003,
              "l": -1.661644817797332,
              "r": -0.5797682813411811
            },
            "r": {
              "f": 25,
              "t": 1.838,
              "l": 0.24587625554129122,
              "r": 0.9967818828949432
            }
          }
        },
        "r": {
          "f": 16,
          "t": -2.425,
          "l": {
            "f": 13,
            "t": -0.1038196823891222,
            "l": {
              "f": 5,
              "t": -13.5,
              "l": -0.654675966947303,
              "r": -1.3638433746509233
            },
            "r": {
              "f": 7,
              "t": -0.04999999999999999,
              "l": -0.6870254528026405,
              "r": 0.19169725038321758
            }
          },
          "r": {
            "f": 4,
            "t": 1.975,
            "l": {
              "f": 21,
              "t": 0.7427999999999999,
              "l": 0.001797653991335649,
              "r": 0.3030175055134048
            },
            "r": {
              "f": 8,
              "t": -2.5,
              "l": 0.11391701479633487,
              "r": 0.8602128870289288
            }
          }
        }
      },
      {
        "f": 4,
        "t": -1.395,
        "l": {
          "f": 4,
          "t": -1.5350000000000001,
          "l": {
            "f": 22,
            "t": -0.4328999999999999,
            "l": {
              "f": 1,
              "t": -4.5,
              "l": -0.02891620501940512,
              "r": -0.4113621465298237
            },
            "r": {
              "f": 25,
              "t": 3.1828,
              "l": 0.018442298799357007,
              "r": 1.2587339463495255
            }
          },
          "r": {
            "f": 25,
            "t": 1.7241499999999998,
            "l": {
              "f": 21,
              "t": 0.10265000000000035,
              "l": -0.5118386091592825,
              "r": -1.4879049263074424
            },
            "r": 0.07489728683074451
          }
        },
        "r": {
          "f": 11,
          "t": -0.05221257237386262,
          "l": {
            "f": 15,
            "t": 0.2935000000000002,
            "l": {
              "f": 11,
              "t": -0.1964914978408232,
              "l": -0.62214880313538,
              "r": -0.135712726489251
            },
            "r": {
              "f": 15,
              "t": 0.5878500000000001,
              "l": 0.523344463007208,
              "r": -0.07760996741163298
            }
          },
          "r": {
            "f": 18,
            "t": -0.60315,
            "l": {
              "f": 22,
              "t": -0.8633499999999998,
              "l": -0.14328852932458008,
              "r": 0.8061083575652724
            },
            "r": {
              "f": 4,
              "t": 0.07000000000000017,
              "l": -0.0496970590990252,
              "r": 0.24767343464534017
            }
          }
        }
      },
      {
        "f": 11,
        "t": -0.02560246770773089,
        "l": {
          "f": 10,
          "t": 69.5,
          "l": {
            "f": 25,
            "t": 4.69755,
            "l": {
              "f": 18,
              "t": 0.9999500000000001,
              "l": -0.1296486005614479,
              "r": -0.6438646456499272
            },
            "r": -1.5397676758532353
          },
          "r": {
            "f": 17,
            "t": 0.6842671088280401,
            "l": {
              "f": 6,
              "t": 32.5,
              "l": 1.1348530415421227,
              "r": 0.4190798382206625
            },
            "r": {
              "f": 4,
              "t": -0.24,
              "l": -0.6949524072046749,
              "r": 0.6352863266765677
            }
          }
        },
        "r": {
          "f": 10,
          "t": -11.5,
          "l": {
            "f": 9,
            "t": -5.5,
            "l": 0.047595071955658416,
            "r": {
              "f": 25,
              "t": -0.7313000000000002,
              "l": -0.52023079332227,
              "r": -1.387857642227008
            }
          },
          "r": {
            "f": 11,
            "t": 0.14989878542510116,
            "l": {
              "f": 12,
              "t": -2.5,
              "l": -0.11612645751630118,
              "r": 0.17694027078399835
            },
            "r": {
              "f": 6,
              "t": 70.5,
              "l": 0.45652157575358265,
              "r": -1.5688611945143105
            }
          }
        }
      },
      {
        "f": 16,
        "t": 2.29,
        "l": {
          "f": 13,
          "t": -0.6844513092040105,
          "l": {
            "f": 12,
            "t": -38.5,
            "l": 0.691294412648594,
            "r": {
              "f": 6,
              "t": -35.5,
              "l": 0.39575396779731453,
              "r": -0.7130640402926604
            }
          },
          "r": {
            "f": 11,
            "t": -0.22194444444444447,
            "l": {
              "f": 2,
              "t": -0.6349999999999998,
              "l": -1.2571767315271913,
              "r": -0.4318989937828193
            },
            "r": {
              "f": 22,
              "t": -0.75915,
              "l": -0.25767756068515446,
              "r": 0.03291923845956909
            }
          }
        },
        "r": {
          "f": 26,
          "t": -4.06625,
          "l": -1.0060704783428032,
          "r": {
            "f": 18,
            "t": -1.2123,
            "l": 1.116906247398203,
            "r": {
              "f": 22,
              "t": -0.41139999999999993,
              "l": -0.3130496005733011,
              "r": 0.5070267252661104
            }
          }
        }
      },
      {
        "f": 11,
        "t": -0.1008316080055211,
        "l": {
          "f": 3,
          "t": -0.5,
          "l": {
            "f": 2,
            "t": 2.825,
            "l": {
              "f": 16,
              "t": -3.345,
              "l": 0.6934962572865265,
              "r": -0.42812972568607216
            },
            "r": -1.260604399705288
          },
          "r": {
            "f": 21,
            "t": 0.34525000000000006,
            "l": {
              "f": 19,
              "t": 1.0288499999999998,
              "l": -0.10985128913124274,
              "r": -1.0848985623653955
            },
            "r": {
              "f": 15,
              "t": 0.09950000000000014,
              "l": 1.052246102170548,
              "r": -0.03229503583180023
            }
          }
        },
        "r": {
          "f": 26,
          "t": -0.4687499999999999,
          "l": {
            "f": 19,
            "t": -0.5219,
            "l": {
              "f": 26,
              "t": -1.5887499999999999,
              "l": -0.11250508433158561,
              "r": 0.2872052513642229
            },
            "r": {
              "f": 13,
              "t": -0.07850187440483247,
              "l": -0.7676369628710831,
              "r": -0.2679116432154173
            }
          },
          "r": {
            "f": 13,
            "t": -0.24908725310621604,
            "l": {
              "f": 2,
              "t": 0.835,
              "l": 0.007170923777877928,
              "r": -0.48569501997439884
            },
            "r": {
              "f": 21,
              "t": -1.69375,
              "l": -0.7770475744135884,
              "r": 0.23551895396098535
            }
          }
        }
      },
      {
        "f": 11,
        "t": -0.101404909790003,
        "l": {
          "f": 11,
          "t": -0.11482420554428663,
          "l": {
            "f": 11,
            "t": -0.11978708031339608,
            "l": {
              "f": 11,
              "t": -0.2571486928104575,
              "l": -0.7082635223918686,
              "r": -0.11958617561069616
            },
            "r": {
              "f": 9,
              "t": 3.5,
              "l": -0.07015624952521626,
              "r": 1.4677661241250135
            }
          },
          "r": {
            "f": 11,
            "t": -0.11329472329472323,
            "l": -1.724692889700611,
            "r": {
              "f": 0,
              "t": -0.03499999999999992,
              "l": -0.9504451853161549,
              "r": -0.10876016218222238
            }
          }
        },
        "r": {
          "f": 4,
          "t": -0.6499999999999999,
          "l": {
            "f": 5,
            "t": 52.5,
            "l": {
              "f": 25,
              "t": 3.19685,
              "l": -0.09747987324607035,
              "r": 0.38354925560851905
            },
            "r": -1.4923484797479245
          },
          "r": {
            "f": 18,
            "t": -0.6028499999999999,
            "l": {
              "f": 0,
              "t": 0.5900000000000001,
              "l": 1.3333556929243573,
              "r": -0.07280606418088552
            },
            "r": {
              "f": 0,
              "t": -1.9699999999999998,
              "l": -0.1903600838887752,
              "r": 0.14874699309322897
            }
          }
        }
      },
      {
        "f": 22,
        "t": 0.22319999999999995,
        "l": {
          "f": 18,
          "t": 0.24324999999999997,
          "l": {
            "f": 4,
            "t": -0.6599999999999999,
            "l": {
              "f": 2,
              "t": -2.105,
              "l": 0.4280732461297079,
              "r": -0.1955683295643422
            },
            "r": {
              "f": 10,
              "t": 2.5,
              "l": 0.003056877048470221,
              "r": 0.368610357526497
            }
          },
          "r": {
            "f": 24,
            "t": 0.2797,
            "l": {
              "f": 5,
              "t": -12.5,
              "l": 0.6191307648464928,
              "r": -0.611587930951436
            },
            "r": {
              "f": 20,
              "t": -22.4,
              "l": -0.45872346059777674,
              "r": 0.8184743762499462
            }
          }
        },
        "r": {
          "f": 8,
          "t": 1.5,
          "l": {
            "f": 5,
            "t": -6.5,
            "l": {
              "f": 5,
              "t": -33.5,
              "l": -0.5338701901174062,
              "r": 0.5722266526351307
            },
            "r": {
              "f": 10,
              "t": 2.5,
              "l": -0.18286197791993533,
              "r": 0.35780134058726254
            }
          },
          "r": {
            "f": 2,
            "t": 1.6549999999999998,
            "l": {
              "f": 2,
              "t": 0.47999999999999987,
              "l": 0.3106774109827815,
              "r": 0.6599285352962545
            },
            "r": {
              "f": 20,
              "t": 0.16000000000000014,
              "l": 1.106038036382118,
              "r": -0.5955320943386151
            }
          }
        }
      },
      {
        "f": 11,
        "t": -0.02560246770773089,
        "l": {
          "f": 13,
          "t": -0.49771402621643945,
          "l": {
            "f": 8,
            "t": -17.5,
            "l": {
              "f": 22,
              "t": 0.5285,
              "l": -0.11537833436301585,
              "r": 1.2123396568495461
            },
            "r": {
              "f": 6,
              "t": -34.5,
              "l": 0.251025819215234,
              "r": -1.0507426989868032
            }
          },
          "r": {
            "f": 8,
            "t": -12.5,
            "l": {
              "f": 25,
              "t": 1.0097999999999998,
              "l": 0.41142107226036656,
              "r": 1.8774188496645945
            },
            "r": {
              "f": 26,
              "t": -1.5212500000000002,
              "l": -0.3968694645549714,
              "r": -0.04889020233541588
            }
          }
        },
        "r": {
          "f": 10,
          "t": 5.5,
          "l": {
            "f": 24,
            "t": -1.07815,
            "l": -1.6581036820704538,
            "r": {
              "f": 13,
              "t": -0.6838011140538689,
              "l": -0.3504995809651391,
              "r": 0.08589450707977107
            }
          },
          "r": {
            "f": 8,
            "t": -3.5,
            "l": {
              "f": 16,
              "t": 0.05999999999999983,
              "l": -0.05870578612601323,
              "r": 1.1642936902674421
            },
            "r": {
              "f": 13,
              "t": -0.16478650708047038,
              "l": -0.2589156064208428,
              "r": 0.4799916246216846
            }
          }
        }
      },
      {
        "f": 8,
        "t": 2.5,
        "l": {
          "f": 2,
          "t": -3.0650000000000004,
          "l": {
            "f": 17,
            "t": 0.38747671057733174,
            "l": {
              "f": 5,
              "t": -2.5,
              "l": 1.6224148858840994,
              "r": 0.43189627008950365
            },
            "r": {
              "f": 21,
              "t": -0.07174999999999987,
              "l": -0.6572871252436993,
              "r": 0.6540407460051165
            }
          },
          "r": {
            "f": 15,
            "t": -1.2402499999999999,
            "l": {
              "f": 25,
              "t": -3.7375499999999997,
              "l": 0.5159323799866278,
              "r": -0.6027100374073006
            },
            "r": {
              "f": 4,
              "t": 0.004999999999999949,
              "l": -0.18569912996289395,
              "r": 0.019102327576906775
            }
          }
        },
        "r": {
          "f": 20,
          "t": -21.689999999999998,
          "l": {
            "f": 0,
            "t": -2.045,
            "l": 0.6852370440477302,
            "r": {
              "f": 21,
              "t": -0.8721999999999999,
              "l": -1.4386551096796882,
              "r": -0.4364096040212937
            }
          },
          "r": {
            "f": 16,
            "t": 0.74,
            "l": {
              "f": 4,
              "t": -1.4100000000000001,
              "l": -0.23610988530071117,
              "r": 0.13085212542904967
            },
            "r": {
              "f": 13,
              "t": 0.4955665640749993,
              "l": 0.11553958892994132,
              "r": 0.5610125352625899
            }
          }
        }
      },
      {
        "f": 11,
        "t": 0.14919908466819226,
        "l": {
          "f": 16,
          "t": 3.0150000000000006,
          "l": {
            "f": 22,
            "t": 0.7740500000000001,
            "l": {
              "f": 1,
              "t": 6.5,
              "l": -0.14134746575627283,
              "r": 0.05654245596753
            },
            "r": {
              "f": 18,
              "t": 1.95045,
              "l": 0.3283785616122033,
              "r": -0.6760845152822796
            }
          },
          "r": {
            "f": 1,
            "t": 17.5,
            "l": {
              "f": 22,
              "t": -0.9246000000000001,
              "l": 1.1171048411149949,
              "r": 0.6098497356338576
            },
            "r": {
              "f": 24,
              "t": 0.07820000000000002,
              "l": -1.0045815687706487,
              "r": 0.5578927441607476
            }
          }
        },
        "r": {
          "f": 11,
          "t": 0.15548048048048047,
          "l": {
            "f": 22,
            "t": -0.016099999999999948,
            "l": 1.461226624952393,
            "r": {
              "f": 10,
              "t": 0.5,
              "l": 0.131659126385537,
              "r": 1.2911696698242903
            }
          },
          "r": {
            "f": 6,
            "t": 70.5,
            "l": {
              "f": 22,
              "t": -0.548,
              "l": -0.27473851808372485,
              "r": 0.36109211414614295
            },
            "r": -1.2259972182412917
          }
        }
      },
      {
        "f": 11,
        "t": -0.01996246606789487,
        "l": {
          "f": 14,
          "t": 0.5,
          "l": {
            "f": 15,
            "t": 1.3910999999999998,
            "l": {
              "f": 22,
              "t": 0.1004,
              "l": -0.23433193254297624,
              "r": 0.008507345270045813
            },
            "r": {
              "f": 5,
              "t": 28,
              "l": -0.952447313372504,
              "r": 0.25510911224642424
            }
          },
          "r": {
            "f": 11,
            "t": -0.24517094017094015,
            "l": {
              "f": 25,
              "t": 0.9308000000000003,
              "l": -1.6007528029438953,
              "r": -0.481873303196771
            },
            "r": {
              "f": 25,
              "t": 1.8428499999999999,
              "l": 0.15986122791890772,
              "r": 0.9054537968783618
            }
          }
        },
        "r": {
          "f": 23,
          "t": -0.22875,
          "l": {
            "f": 5,
            "t": -10,
            "l": 0.20152094694016112,
            "r": {
              "f": 17,
              "t": 0.48976115793606995,
              "l": 1.173362917991356,
              "r": 0.8792098489585233
            }
          },
          "r": {
            "f": 15,
            "t": 0.13070000000000015,
            "l": {
              "f": 15,
              "t": 0.12095,
              "l": -0.007757890389671815,
              "r": -1.1343153233150105
            },
            "r": {
              "f": 15,
              "t": 0.26064999999999994,
              "l": 0.6164465651409567,
              "r": 0.12959172038196257
            }
          }
        }
      },
      {
        "f": 11,
        "t": -0.12028494280275964,
        "l": {
          "f": 23,
          "t": 0.6533,
          "l": {
            "f": 15,
            "t": 1.1065,
            "l": {
              "f": 15,
              "t": 0.8232000000000002,
              "l": -0.22505045972505447,
              "r": 0.833432967585481
            },
            "r": {
              "f": 5,
              "t": -7.5,
              "l": -0.17614999214440977,
              "r": -1.5750989096622503
            }
          },
          "r": 0.8908935427281067
        },
        "r": {
          "f": 16,
          "t": -4.595000000000001,
          "l": -1.1338730376464157,
          "r": {
            "f": 26,
            "t": 1.04,
            "l": {
              "f": 19,
              "t": 0.5857000000000001,
              "l": 0.027656026733173803,
              "r": -0.3325484385159115
            },
            "r": {
              "f": 5,
              "t": -12.5,
              "l": 0.6152313648793472,
              "r": 0.13325464554185862
            }
          }
        }
      },
      {
        "f": 11,
        "t": -0.1804164526622154,
        "l": {
          "f": 8,
          "t": -12,
          "l": 0.706684287950591,
          "r": {
            "f": 4,
            "t": 1.84,
            "l": {
              "f": 18,
              "t": 0.30660000000000004,
              "l": -0.36567021678421513,
              "r": -1.4210032758425795
            },
            "r": 0.7881525226684466
          }
        },
        "r": {
          "f": 11,
          "t": -0.17530601582325717,
          "l": 1.5075846138781364,
          "r": {
            "f": 20,
            "t": 20.13,
            "l": {
              "f": 26,
              "t": -1.5712500000000003,
              "l": -0.24168501928673844,
              "r": 0.018231431730292402
            },
            "r": {
              "f": 20,
              "t": 22.605,
              "l": 0.6444637170378686,
              "r": 0.19081502848689189
            }
          }
        }
      },
      {
        "f": 22,
        "t": -0.6188,
        "l": {
          "f": 4,
          "t": -0.5199999999999999,
          "l": {
            "f": 10,
